digraph Tree {
node [shape=box] ;
0 [label="sex=男 <= 0.5\nentropy = 0.929\nsamples = 984\nvalue = [645, 339]"] ;
1 [label="pclass=3rd <= 0.5\nentropy = 0.923\nsamples = 346\nvalue = [117, 229]"] ;
0 -> 1 [labeldistance=2.5, labelangle=45, headlabel="True"] ;
2 [label="年龄 <= 56.5\nentropy = 0.382\nsamples = 188\nvalue = [14, 174]"] ;
1 -> 2 ;
3 [label="年龄 <= 3.0\nentropy = 0.355\nsamples = 179\nvalue = [12, 167]"] ;
2 -> 3 ;
4 [label="pclass=1st <= 0.5\nentropy = 0.918\nsamples = 3\nvalue = [1, 2]"] ;
3 -> 4 ;
5 [label="entropy = 0.0\nsamples = 2\nvalue = [0, 2]"] ;
4 -> 5 ;
6 [label="entropy = 0.0\nsamples = 1\nvalue = [1, 0]"] ;
4 -> 6 ;
7 [label="年龄 <= 24.5\nentropy = 0.337\nsamples = 176\nvalue = [11, 165]"] ;
3 -> 7 ;
8 [label="年龄 <= 18.5\nentropy = 0.156\nsamples = 44\nvalue = [1, 43]"] ;
7 -> 8 ;
9 [label="年龄 <= 17.5\nentropy = 0.297\nsamples = 19\nvalue = [1, 18]"] ;
8 -> 9 ;
10 [label="entropy = 0.0\nsamples = 13\nvalue = [0, 13]"] ;
9 -> 10 ;
11 [label="pclass=1st <= 0.5\nentropy = 0.65\nsamples = 6\nvalue = [1, 5]"] ;
9 -> 11 ;
12 [label="entropy = 0.811\nsamples = 4\nvalue = [1, 3]"] ;
11 -> 12 ;
13 [label="entropy = 0.0\nsamples = 2\nvalue = [0, 2]"] ;
11 -> 13 ;
14 [label="entropy = 0.0\nsamples = 25\nvalue = [0, 25]"] ;
8 -> 14 ;
15 [label="年龄 <= 26.5\nentropy = 0.387\nsamples = 132\nvalue = [10, 122]"] ;
7 -> 15 ;
16 [label="pclass=1st <= 0.5\nentropy = 0.918\nsamples = 6\nvalue = [2, 4]"] ;
15 -> 16 ;
17 [label="年龄 <= 25.5\nentropy = 0.811\nsamples = 4\nvalue = [1, 3]"] ;
16 -> 17 ;
18 [label="entropy = 0.0\nsamples = 1\nvalue = [0, 1]"] ;
17 -> 18 ;
19 [label="entropy = 0.918\nsamples = 3\nvalue = [1, 2]"] ;
17 -> 19 ;
20 [label="年龄 <= 25.5\nentropy = 1.0\nsamples = 2\nvalue = [1, 1]"] ;
16 -> 20 ;
21 [label="entropy = 0.0\nsamples = 1\nvalue = [1, 0]"] ;
20 -> 21 ;
22 [label="entropy = 0.0\nsamples = 1\nvalue = [0, 1]"] ;
20 -> 22 ;
23 [label="pclass=1st <= 0.5\nentropy = 0.341\nsamples = 126\nvalue = [8, 118]"] ;
15 -> 23 ;
24 [label="年龄 <= 29.5\nentropy = 0.457\nsamples = 52\nvalue = [5, 47]"] ;
23 -> 24 ;
25 [label="entropy = 0.0\nsamples = 6\nvalue = [0, 6]"] ;
24 -> 25 ;
26 [label="年龄 <= 44.5\nentropy = 0.496\nsamples = 46\nvalue = [5, 41]"] ;
24 -> 26 ;
27 [label="年龄 <= 42.5\nentropy = 0.544\nsamples = 40\nvalue = [5, 35]"] ;
26 -> 27 ;
28 [label="年龄 <= 30.597\nentropy = 0.477\nsamples = 39\nvalue = [4, 35]"] ;
27 -> 28 ;
29 [label="entropy = 0.811\nsamples = 4\nvalue = [1, 3]"] ;
28 -> 29 ;
30 [label="年龄 <= 37.0\nentropy = 0.422\nsamples = 35\nvalue = [3, 32]"] ;
28 -> 30 ;
31 [label="年龄 <= 31.597\nentropy = 0.345\nsamples = 31\nvalue = [2, 29]"] ;
30 -> 31 ;
32 [label="entropy = 0.469\nsamples = 20\nvalue = [2, 18]"] ;
31 -> 32 ;
33 [label="entropy = 0.0\nsamples = 11\nvalue = [0, 11]"] ;
31 -> 33 ;
34 [label="年龄 <= 39.0\nentropy = 0.811\nsamples = 4\nvalue = [1, 3]"] ;
30 -> 34 ;
35 [label="entropy = 0.0\nsamples = 1\nvalue = [1, 0]"] ;
34 -> 35 ;
36 [label="entropy = 0.0\nsamples = 3\nvalue = [0, 3]"] ;
34 -> 36 ;
37 [label="entropy = 0.0\nsamples = 1\nvalue = [1, 0]"] ;
27 -> 37 ;
38 [label="entropy = 0.0\nsamples = 6\nvalue = [0, 6]"] ;
26 -> 38 ;
39 [label="年龄 <= 50.5\nentropy = 0.245\nsamples = 74\nvalue = [3, 71]"] ;
23 -> 39 ;
40 [label="年龄 <= 49.5\nentropy = 0.273\nsamples = 64\nvalue = [3, 61]"] ;
39 -> 40 ;
41 [label="年龄 <= 33.097\nentropy = 0.211\nsamples = 60\nvalue = [2, 58]"] ;
40 -> 41 ;
42 [label="年龄 <= 31.097\nentropy = 0.316\nsamples = 35\nvalue = [2, 33]"] ;
41 -> 42 ;
43 [label="entropy = 0.0\nsamples = 5\nvalue = [0, 5]"] ;
42 -> 43 ;
44 [label="entropy = 0.353\nsamples = 30\nvalue = [2, 28]"] ;
42 -> 44 ;
45 [label="entropy = 0.0\nsamples = 25\nvalue = [0, 25]"] ;
41 -> 45 ;
46 [label="entropy = 0.811\nsamples = 4\nvalue = [1, 3]"] ;
40 -> 46 ;
47 [label="entropy = 0.0\nsamples = 10\nvalue = [0, 10]"] ;
39 -> 47 ;
48 [label="pclass=1st <= 0.5\nentropy = 0.764\nsamples = 9\nvalue = [2, 7]"] ;
2 -> 48 ;
49 [label="entropy = 0.0\nsamples = 1\nvalue = [1, 0]"] ;
48 -> 49 ;
50 [label="年龄 <= 61.5\nentropy = 0.544\nsamples = 8\nvalue = [1, 7]"] ;
48 -> 50 ;
51 [label="entropy = 0.0\nsamples = 5\nvalue = [0, 5]"] ;
50 -> 51 ;
52 [label="年龄 <= 63.5\nentropy = 0.918\nsamples = 3\nvalue = [1, 2]"] ;
50 -> 52 ;
53 [label="entropy = 1.0\nsamples = 2\nvalue = [1, 1]"] ;
52 -> 53 ;
54 [label="entropy = 0.0\nsamples = 1\nvalue = [0, 1]"] ;
52 -> 54 ;
55 [label="年龄 <= 13.0\nentropy = 0.932\nsamples = 158\nvalue = [103, 55]"] ;
1 -> 55 ;
56 [label="entropy = 0.0\nsamples = 3\nvalue = [3, 0]"] ;
55 -> 56 ;
57 [label="年龄 <= 16.5\nentropy = 0.938\nsamples = 155\nvalue = [100, 55]"] ;
55 -> 57 ;
58 [label="entropy = 0.0\nsamples = 3\nvalue = [0, 3]"] ;
57 -> 58 ;
59 [label="年龄 <= 32.5\nentropy = 0.927\nsamples = 152\nvalue = [100, 52]"] ;
57 -> 59 ;
60 [label="年龄 <= 30.597\nentropy = 0.911\nsamples = 141\nvalue = [95, 46]"] ;
59 -> 60 ;
61 [label="年龄 <= 29.0\nentropy = 0.991\nsamples = 18\nvalue = [10, 8]"] ;
60 -> 61 ;
62 [label="年龄 <= 25.5\nentropy = 0.954\nsamples = 16\nvalue = [10, 6]"] ;
61 -> 62 ;
63 [label="年龄 <= 21.5\nentropy = 0.985\nsamples = 14\nvalue = [8, 6]"] ;
62 -> 63 ;
64 [label="年龄 <= 19.5\nentropy = 0.946\nsamples = 11\nvalue = [7, 4]"] ;
63 -> 64 ;
65 [label="年龄 <= 18.5\nentropy = 1.0\nsamples = 8\nvalue = [4, 4]"] ;
64 -> 65 ;
66 [label="年龄 <= 17.5\nentropy = 0.985\nsamples = 7\nvalue = [4, 3]"] ;
65 -> 66 ;
67 [label="entropy = 1.0\nsamples = 2\nvalue = [1, 1]"] ;
66 -> 67 ;
68 [label="entropy = 0.971\nsamples = 5\nvalue = [3, 2]"] ;
66 -> 68 ;
69 [label="entropy = 0.0\nsamples = 1\nvalue = [0, 1]"] ;
65 -> 69 ;
70 [label="entropy = 0.0\nsamples = 3\nvalue = [3, 0]"] ;
64 -> 70 ;
71 [label="年龄 <= 23.0\nentropy = 0.918\nsamples = 3\nvalue = [1, 2]"] ;
63 -> 71 ;
72 [label="entropy = 0.0\nsamples = 1\nvalue = [0, 1]"] ;
71 -> 72 ;
73 [label="entropy = 1.0\nsamples = 2\nvalue = [1, 1]"] ;
71 -> 73 ;
74 [label="entropy = 0.0\nsamples = 2\nvalue = [2, 0]"] ;
62 -> 74 ;
75 [label="entropy = 0.0\nsamples = 2\nvalue = [0, 2]"] ;
61 -> 75 ;
76 [label="年龄 <= 31.597\nentropy = 0.892\nsamples = 123\nvalue = [85, 38]"] ;
60 -> 76 ;
77 [label="entropy = 0.895\nsamples = 122\nvalue = [84, 38]"] ;
76 -> 77 ;
78 [label="entropy = 0.0\nsamples = 1\nvalue = [1, 0]"] ;
76 -> 78 ;
79 [label="年龄 <= 36.5\nentropy = 0.994\nsamples = 11\nvalue = [5, 6]"] ;
59 -> 79 ;
80 [label="entropy = 0.0\nsamples = 5\nvalue = [0, 5]"] ;
79 -> 80 ;
81 [label="年龄 <= 44.0\nentropy = 0.65\nsamples = 6\nvalue = [5, 1]"] ;
79 -> 81 ;
82 [label="entropy = 0.0\nsamples = 3\nvalue = [3, 0]"] ;
81 -> 82 ;
83 [label="年龄 <= 46.5\nentropy = 0.918\nsamples = 3\nvalue = [2, 1]"] ;
81 -> 83 ;
84 [label="entropy = 1.0\nsamples = 2\nvalue = [1, 1]"] ;
83 -> 84 ;
85 [label="entropy = 0.0\nsamples = 1\nvalue = [1, 0]"] ;
83 -> 85 ;
86 [label="pclass=1st <= 0.5\nentropy = 0.663\nsamples = 638\nvalue = [528, 110]"] ;
0 -> 86 [labeldistance=2.5, labelangle=-45, headlabel="False"] ;
87 [label="年龄 <= 3.5\nentropy = 0.538\nsamples = 504\nvalue = [442, 62]"] ;
86 -> 87 ;
88 [label="年龄 <= 0.583\nentropy = 0.439\nsamples = 11\nvalue = [1, 10]"] ;
87 -> 88 ;
89 [label="entropy = 0.0\nsamples = 1\nvalue = [1, 0]"] ;
88 -> 89 ;
90 [label="entropy = 0.0\nsamples = 10\nvalue = [0, 10]"] ;
88 -> 90 ;
91 [label="年龄 <= 46.0\nentropy = 0.486\nsamples = 493\nvalue = [441, 52]"] ;
87 -> 91 ;
92 [label="年龄 <= 10.0\nentropy = 0.493\nsamples = 482\nvalue = [430, 52]"] ;
91 -> 92 ;
93 [label="年龄 <= 7.0\nentropy = 0.918\nsamples = 6\nvalue = [4, 2]"] ;
92 -> 93 ;
94 [label="entropy = 0.0\nsamples = 3\nvalue = [3, 0]"] ;
93 -> 94 ;
95 [label="pclass=3rd <= 0.5\nentropy = 0.918\nsamples = 3\nvalue = [1, 2]"] ;
93 -> 95 ;
96 [label="entropy = 0.0\nsamples = 1\nvalue = [0, 1]"] ;
95 -> 96 ;
97 [label="entropy = 1.0\nsamples = 2\nvalue = [1, 1]"] ;
95 -> 97 ;
98 [label="年龄 <= 18.5\nentropy = 0.485\nsamples = 476\nvalue = [426, 50]"] ;
92 -> 98 ;
99 [label="entropy = 0.0\nsamples = 16\nvalue = [16, 0]"] ;
98 -> 99 ;
100 [label="年龄 <= 19.5\nentropy = 0.496\nsamples = 460\nvalue = [410, 50]"] ;
98 -> 100 ;
101 [label="pclass=3rd <= 0.5\nentropy = 0.881\nsamples = 10\nvalue = [7, 3]"] ;
100 -> 101 ;
102 [label="entropy = 1.0\nsamples = 2\nvalue = [1, 1]"] ;
101 -> 102 ;
103 [label="entropy = 0.811\nsamples = 8\nvalue = [6, 2]"] ;
101 -> 103 ;
104 [label="年龄 <= 21.5\nentropy = 0.483\nsamples = 450\nvalue = [403, 47]"] ;
100 -> 104 ;
105 [label="年龄 <= 20.5\nentropy = 0.31\nsamples = 18\nvalue = [17, 1]"] ;
104 -> 105 ;
106 [label="pclass=3rd <= 0.5\nentropy = 0.503\nsamples = 9\nvalue = [8, 1]"] ;
105 -> 106 ;
107 [label="entropy = 0.0\nsamples = 2\nvalue = [2, 0]"] ;
106 -> 107 ;
108 [label="entropy = 0.592\nsamples = 7\nvalue = [6, 1]"] ;
106 -> 108 ;
109 [label="entropy = 0.0\nsamples = 9\nvalue = [9, 0]"] ;
105 -> 109 ;
110 [label="年龄 <= 24.5\nentropy = 0.489\nsamples = 432\nvalue = [386, 46]"] ;
104 -> 110 ;
111 [label="年龄 <= 23.5\nentropy = 0.605\nsamples = 27\nvalue = [23, 4]"] ;
110 -> 111 ;
112 [label="年龄 <= 22.5\nentropy = 0.503\nsamples = 18\nvalue = [16, 2]"] ;
111 -> 112 ;
113 [label="pclass=3rd <= 0.5\nentropy = 0.544\nsamples = 8\nvalue = [7, 1]"] ;
112 -> 113 ;
114 [label="entropy = 0.918\nsamples = 3\nvalue = [2, 1]"] ;
113 -> 114 ;
115 [label="entropy = 0.0\nsamples = 5\nvalue = [5, 0]"] ;
113 -> 115 ;
116 [label="pclass=2nd <= 0.5\nentropy = 0.469\nsamples = 10\nvalue = [9, 1]"] ;
112 -> 116 ;
117 [label="entropy = 0.722\nsamples = 5\nvalue = [4, 1]"] ;
116 -> 117 ;
118 [label="entropy = 0.0\nsamples = 5\nvalue = [5, 0]"] ;
116 -> 118 ;
119 [label="pclass=3rd <= 0.5\nentropy = 0.764\nsamples = 9\nvalue = [7, 2]"] ;
111 -> 119 ;
120 [label="entropy = 0.918\nsamples = 3\nvalue = [2, 1]"] ;
119 -> 120 ;
121 [label="entropy = 0.65\nsamples = 6\nvalue = [5, 1]"] ;
119 -> 121 ;
122 [label="年龄 <= 44.5\nentropy = 0.481\nsamples = 405\nvalue = [363, 42]"] ;
110 -> 122 ;
123 [label="年龄 <= 41.5\nentropy = 0.477\nsamples = 400\nvalue = [359, 41]"] ;
122 -> 123 ;
124 [label="年龄 <= 40.5\nentropy = 0.483\nsamples = 393\nvalue = [352, 41]"] ;
123 -> 124 ;
125 [label="年龄 <= 36.5\nentropy = 0.478\nsamples = 389\nvalue = [349, 40]"] ;
124 -> 125 ;
126 [label="年龄 <= 35.5\nentropy = 0.487\nsamples = 378\nvalue = [338, 40]"] ;
125 -> 126 ;
127 [label="年龄 <= 34.5\nentropy = 0.482\nsamples = 375\nvalue = [336, 39]"] ;
126 -> 127 ;
128 [label="年龄 <= 31.597\nentropy = 0.485\nsamples = 371\nvalue = [332, 39]"] ;
127 -> 128 ;
129 [label="年龄 <= 28.5\nentropy = 0.475\nsamples = 353\nvalue = [317, 36]"] ;
128 -> 129 ;
130 [label="年龄 <= 26.5\nentropy = 0.371\nsamples = 28\nvalue = [26, 2]"] ;
129 -> 130 ;
131 [label="pclass=3rd <= 0.5\nentropy = 0.454\nsamples = 21\nvalue = [19, 2]"] ;
130 -> 131 ;
132 [label="年龄 <= 25.5\nentropy = 0.544\nsamples = 8\nvalue = [7, 1]"] ;
131 -> 132 ;
133 [label="entropy = 0.0\nsamples = 4\nvalue = [4, 0]"] ;
132 -> 133 ;
134 [label="entropy = 0.811\nsamples = 4\nvalue = [3, 1]"] ;
132 -> 134 ;
135 [label="年龄 <= 25.5\nentropy = 0.391\nsamples = 13\nvalue = [12, 1]"] ;
131 -> 135 ;
136 [label="entropy = 0.722\nsamples = 5\nvalue = [4, 1]"] ;
135 -> 136 ;
137 [label="entropy = 0.0\nsamples = 8\nvalue = [8, 0]"] ;
135 -> 137 ;
138 [label="entropy = 0.0\nsamples = 7\nvalue = [7, 0]"] ;
130 -> 138 ;
139 [label="年龄 <= 29.5\nentropy = 0.483\nsamples = 325\nvalue = [291, 34]"] ;
129 -> 139 ;
140 [label="pclass=2nd <= 0.5\nentropy = 0.811\nsamples = 4\nvalue = [3, 1]"] ;
139 -> 140 ;
141 [label="entropy = 0.0\nsamples = 1\nvalue = [0, 1]"] ;
140 -> 141 ;
142 [label="entropy = 0.0\nsamples = 3\nvalue = [3, 0]"] ;
140 -> 142 ;
143 [label="年龄 <= 31.097\nentropy = 0.478\nsamples = 321\nvalue = [288, 33]"] ;
139 -> 143 ;
144 [label="pclass=3rd <= 0.5\nentropy = 0.371\nsamples = 14\nvalue = [13, 1]"] ;
143 -> 144 ;
145 [label="entropy = 0.469\nsamples = 10\nvalue = [9, 1]"] ;
144 -> 145 ;
146 [label="entropy = 0.0\nsamples = 4\nvalue = [4, 0]"] ;
144 -> 146 ;
147 [label="pclass=2nd <= 0.5\nentropy = 0.482\nsamples = 307\nvalue = [275, 32]"] ;
143 -> 147 ;
148 [label="entropy = 0.49\nsamples = 272\nvalue = [243, 29]"] ;
147 -> 148 ;
149 [label="entropy = 0.422\nsamples = 35\nvalue = [32, 3]"] ;
147 -> 149 ;
150 [label="pclass=2nd <= 0.5\nentropy = 0.65\nsamples = 18\nvalue = [15, 3]"] ;
128 -> 150 ;
151 [label="年龄 <= 32.5\nentropy = 0.469\nsamples = 10\nvalue = [9, 1]"] ;
150 -> 151 ;
152 [label="entropy = 0.65\nsamples = 6\nvalue = [5, 1]"] ;
151 -> 152 ;
153 [label="entropy = 0.0\nsamples = 4\nvalue = [4, 0]"] ;
151 -> 153 ;
154 [label="年龄 <= 32.5\nentropy = 0.811\nsamples = 8\nvalue = [6, 2]"] ;
150 -> 154 ;
155 [label="entropy = 0.918\nsamples = 3\nvalue = [2, 1]"] ;
154 -> 155 ;
156 [label="年龄 <= 33.5\nentropy = 0.722\nsamples = 5\nvalue = [4, 1]"] ;
154 -> 156 ;
157 [label="entropy = 0.0\nsamples = 1\nvalue = [1, 0]"] ;
156 -> 157 ;
158 [label="entropy = 0.811\nsamples = 4\nvalue = [3, 1]"] ;
156 -> 158 ;
159 [label="entropy = 0.0\nsamples = 4\nvalue = [4, 0]"] ;
127 -> 159 ;
160 [label="pclass=2nd <= 0.5\nentropy = 0.918\nsamples = 3\nvalue = [2, 1]"] ;
126 -> 160 ;
161 [label="entropy = 1.0\nsamples = 2\nvalue = [1, 1]"] ;
160 -> 161 ;
162 [label="entropy = 0.0\nsamples = 1\nvalue = [1, 0]"] ;
160 -> 162 ;
163 [label="entropy = 0.0\nsamples = 11\nvalue = [11, 0]"] ;
125 -> 163 ;
164 [label="pclass=2nd <= 0.5\nentropy = 0.811\nsamples = 4\nvalue = [3, 1]"] ;
124 -> 164 ;
165 [label="entropy = 0.0\nsamples = 2\nvalue = [2, 0]"] ;
164 -> 165 ;
166 [label="entropy = 1.0\nsamples = 2\nvalue = [1, 1]"] ;
164 -> 166 ;
167 [label="entropy = 0.0\nsamples = 7\nvalue = [7, 0]"] ;
123 -> 167 ;
168 [label="pclass=3rd <= 0.5\nentropy = 0.722\nsamples = 5\nvalue = [4, 1]"] ;
122 -> 168 ;
169 [label="entropy = 0.0\nsamples = 3\nvalue = [3, 0]"] ;
168 -> 169 ;
170 [label="entropy = 1.0\nsamples = 2\nvalue = [1, 1]"] ;
168 -> 170 ;
171 [label="entropy = 0.0\nsamples = 11\nvalue = [11, 0]"] ;
91 -> 171 ;
172 [label="年龄 <= 60.5\nentropy = 0.941\nsamples = 134\nvalue = [86, 48]"] ;
86 -> 172 ;
173 [label="年龄 <= 16.0\nentropy = 0.963\nsamples = 124\nvalue = [76, 48]"] ;
172 -> 173 ;
174 [label="entropy = 0.0\nsamples = 4\nvalue = [0, 4]"] ;
173 -> 174 ;
175 [label="年龄 <= 22.5\nentropy = 0.948\nsamples = 120\nvalue = [76, 44]"] ;
173 -> 175 ;
176 [label="entropy = 0.0\nsamples = 3\nvalue = [3, 0]"] ;
175 -> 176 ;
177 [label="年龄 <= 38.5\nentropy = 0.955\nsamples = 117\nvalue = [73, 44]"] ;
175 -> 177 ;
178 [label="年龄 <= 33.5\nentropy = 0.987\nsamples = 74\nvalue = [42, 32]"] ;
177 -> 178 ;
179 [label="年龄 <= 29.0\nentropy = 0.959\nsamples = 63\nvalue = [39, 24]"] ;
178 -> 179 ;
180 [label="年龄 <= 23.5\nentropy = 0.985\nsamples = 14\nvalue = [6, 8]"] ;
179 -> 180 ;
181 [label="entropy = 0.0\nsamples = 1\nvalue = [0, 1]"] ;
180 -> 181 ;
182 [label="年龄 <= 24.5\nentropy = 0.996\nsamples = 13\nvalue = [6, 7]"] ;
180 -> 182 ;
183 [label="entropy = 0.918\nsamples = 3\nvalue = [2, 1]"] ;
182 -> 183 ;
184 [label="年龄 <= 27.5\nentropy = 0.971\nsamples = 10\nvalue = [4, 6]"] ;
182 -> 184 ;
185 [label="年龄 <= 26.0\nentropy = 0.918\nsamples = 6\nvalue = [2, 4]"] ;
184 -> 185 ;
186 [label="entropy = 0.918\nsamples = 3\nvalue = [1, 2]"] ;
185 -> 186 ;
187 [label="entropy = 0.918\nsamples = 3\nvalue = [1, 2]"] ;
185 -> 187 ;
188 [label="entropy = 1.0\nsamples = 4\nvalue = [2, 2]"] ;
184 -> 188 ;
189 [label="年龄 <= 30.5\nentropy = 0.911\nsamples = 49\nvalue = [33, 16]"] ;
179 -> 189 ;
190 [label="entropy = 0.0\nsamples = 3\nvalue = [3, 0]"] ;
189 -> 190 ;
191 [label="年龄 <= 32.5\nentropy = 0.932\nsamples = 46\nvalue = [30, 16]"] ;
189 -> 191 ;
192 [label="年龄 <= 31.597\nentropy = 0.946\nsamples = 44\nvalue = [28, 16]"] ;
191 -> 192 ;
193 [label="年龄 <= 31.097\nentropy = 0.94\nsamples = 42\nvalue = [27, 15]"] ;
192 -> 193 ;
194 [label="entropy = 0.918\nsamples = 3\nvalue = [2, 1]"] ;
193 -> 194 ;
195 [label="entropy = 0.942\nsamples = 39\nvalue = [25, 14]"] ;
193 -> 195 ;
196 [label="entropy = 1.0\nsamples = 2\nvalue = [1, 1]"] ;
192 -> 196 ;
197 [label="entropy = 0.0\nsamples = 2\nvalue = [2, 0]"] ;
191 -> 197 ;
198 [label="年龄 <= 36.5\nentropy = 0.845\nsamples = 11\nvalue = [3, 8]"] ;
178 -> 198 ;
199 [label="年龄 <= 35.5\nentropy = 0.592\nsamples = 7\nvalue = [1, 6]"] ;
198 -> 199 ;
200 [label="entropy = 0.0\nsamples = 2\nvalue = [0, 2]"] ;
199 -> 200 ;
201 [label="entropy = 0.722\nsamples = 5\nvalue = [1, 4]"] ;
199 -> 201 ;
202 [label="年龄 <= 37.5\nentropy = 1.0\nsamples = 4\nvalue = [2, 2]"] ;
198 -> 202 ;
203 [label="entropy = 1.0\nsamples = 2\nvalue = [1, 1]"] ;
202 -> 203 ;
204 [label="entropy = 1.0\nsamples = 2\nvalue = [1, 1]"] ;
202 -> 204 ;
205 [label="年龄 <= 46.5\nentropy = 0.854\nsamples = 43\nvalue = [31, 12]"] ;
177 -> 205 ;
206 [label="年龄 <= 45.5\nentropy = 0.629\nsamples = 19\nvalue = [16, 3]"] ;
205 -> 206 ;
207 [label="年龄 <= 42.5\nentropy = 0.779\nsamples = 13\nvalue = [10, 3]"] ;
206 -> 207 ;
208 [label="年龄 <= 39.5\nentropy = 0.592\nsamples = 7\nvalue = [6, 1]"] ;
207 -> 208 ;
209 [label="entropy = 0.811\nsamples = 4\nvalue = [3, 1]"] ;
208 -> 209 ;
210 [label="entropy = 0.0\nsamples = 3\nvalue = [3, 0]"] ;
208 -> 210 ;
211 [label="年龄 <= 44.5\nentropy = 0.918\nsamples = 6\nvalue = [4, 2]"] ;
207 -> 211 ;
212 [label="entropy = 1.0\nsamples = 2\nvalue = [1, 1]"] ;
211 -> 212 ;
213 [label="entropy = 0.811\nsamples = 4\nvalue = [3, 1]"] ;
211 -> 213 ;
214 [label="entropy = 0.0\nsamples = 6\nvalue = [6, 0]"] ;
206 -> 214 ;
215 [label="年龄 <= 54.5\nentropy = 0.954\nsamples = 24\nvalue = [15, 9]"] ;
205 -> 215 ;
216 [label="年龄 <= 52.5\nentropy = 1.0\nsamples = 14\nvalue = [7, 7]"] ;
215 -> 216 ;
217 [label="年龄 <= 49.5\nentropy = 0.994\nsamples = 11\nvalue = [6, 5]"] ;
216 -> 217 ;
218 [label="年龄 <= 48.5\nentropy = 0.991\nsamples = 9\nvalue = [4, 5]"] ;
217 -> 218 ;
219 [label="年龄 <= 47.5\nentropy = 1.0\nsamples = 4\nvalue = [2, 2]"] ;
218 -> 219 ;
220 [label="entropy = 1.0\nsamples = 2\nvalue = [1, 1]"] ;
219 -> 220 ;
221 [label="entropy = 1.0\nsamples = 2\nvalue = [1, 1]"] ;
219 -> 221 ;
222 [label="entropy = 0.971\nsamples = 5\nvalue = [2, 3]"] ;
218 -> 222 ;
223 [label="entropy = 0.0\nsamples = 2\nvalue = [2, 0]"] ;
217 -> 223 ;
224 [label="entropy = 0.918\nsamples = 3\nvalue = [1, 2]"] ;
216 -> 224 ;
225 [label="年龄 <= 55.5\nentropy = 0.722\nsamples = 10\nvalue = [8, 2]"] ;
215 -> 225 ;
226 [label="entropy = 0.0\nsamples = 3\nvalue = [3, 0]"] ;
225 -> 226 ;
227 [label="年龄 <= 59.0\nentropy = 0.863\nsamples = 7\nvalue = [5, 2]"] ;
225 -> 227 ;
228 [label="年龄 <= 56.5\nentropy = 0.722\nsamples = 5\nvalue = [4, 1]"] ;
227 -> 228 ;
229 [label="entropy = 0.918\nsamples = 3\nvalue = [2, 1]"] ;
228 -> 229 ;
230 [label="entropy = 0.0\nsamples = 2\nvalue = [2, 0]"] ;
228 -> 230 ;
231 [label="entropy = 1.0\nsamples = 2\nvalue = [1, 1]"] ;
227 -> 231 ;
232 [label="entropy = 0.0\nsamples = 10\nvalue = [10, 0]"] ;
172 -> 232 ;
}